{
  "dgp_generator_name": "plm_uniform_noise_dgp_generator",
  "dgp_param_grid": {
    "beta_high": 0.5,
    "beta_low": -0.5,
    "beta_sampler_name": "uniform",
    "d": 3,
    "func_mu_name": "experiment_1_7_5_mu",
    "func_pi_name": [
      "experiment_1_7_5_pi_1",
      "experiment_1_7_5_pi_2",
      "experiment_1_7_5_pi_4",
      "experiment_1_7_5_pi_8"
    ],
    "n": [
      2048
    ],
    "n_test": 10000,
    "sigma_eps": 1.7320508075688772,
    "sigma_u": 1.7320508075688772
  },
  "estimator_specs": [
    {
      "accepts_trial_seed": true,
      "factory_name": "make_plm_minimax_tracking_estimator",
      "is_oracle": true,
      "method_config": {
        "L": 3,
        "N": 512,
        "batch_size": 2048,
        "d": 3,
        "device": "cpu",
        "lambda_mu": 2e-05,
        "lambda_pi": 2e-05,
        "lr": 0.001,
        "niter": 200,
        "seed_mode": "trial_seed",
        "tracking_interval": 10,
        "tracking_source": "validation",
        "validation_n": 2048,
        "variance_mode": "constant_one"
      },
      "name": "plm_minimax_debias_tracking"
    }
  ],
  "exp_id": "1.7_6",
  "exp_name": "plm",
  "n_trials": 10,
  "seed_offset": 0,
  "trial_results": [
    {
      "beta_true": 0.04881350392732475,
      "dgp_config": {
        "beta_high": 0.5,
        "beta_low": -0.5,
        "beta_sampler_name": "uniform",
        "d": 3,
        "func_mu_name": "experiment_1_7_5_mu",
        "func_pi_name": "experiment_1_7_5_pi_1",
        "n": 2048,
        "n_test": 10000,
        "sigma_eps": 1.7320508075688772,
        "sigma_u": 1.7320508075688772
      },
      "dgp_name": "partial_linear_uniform_noise",
      "estimator_results": [
        {
          "beta_hat": 0.0662897601723671,
          "beta_init_sq_error": 0.0003054195323423815,
          "beta_initial": 0.0662897601723671,
          "beta_path": [
            0.10365819185972214,
            0.11774156987667084,
            0.09464222192764282,
            0.07237030565738678,
            0.05970372259616852,
            0.05247125029563904,
            0.05092453584074974,
            0.04605398699641228,
            0.042474038898944855,
            0.03384774550795555,
            0.04009585455060005,
            0.055066876113414764,
            0.031662262976169586,
            0.03206852078437805,
            0.04013682156801224,
            0.02512793056666851,
            0.022308142855763435,
            0.04110332578420639,
            0.030200457200407982,
            0.03784461319446564,
            0.0662897601723671
          ],
          "beta_sq_error": 0.0003054195323423815,
          "beta_sq_error_path": [
            0.0030079397944020553,
            0.004751078275517403,
            0.0021002713935526773,
            0.0005549229077494533,
            0.00011859686265523327,
            1.3379108494916342e-05,
            4.456455739498765e-06,
            7.614933691992609e-06,
            4.0188816846051745e-05,
            0.00022397392506692015,
            7.599741065550856e-05,
            3.910466369776417e-05,
            0.000294165066164582,
            0.00028039446045756915,
            7.5284816764405e-05,
            0.0005610063854230286,
            0.0007025341655338381,
            5.944684699862012e-05,
            0.0003464455084583871,
            0.00012031656390940259,
            0.0003054195323423815
          ],
          "debias_weights": [
            0.7755014896392822,
            0.1323554515838623,
            -0.1254124939441681,
            0.22700875997543335,
            0.6141246557235718,
            -1.2485235929489136,
            0.7049174308776855,
            0.7896896600723267,
            -1.2729523181915283,
            1.0406852960586548,
            0.06145067512989044,
            -1.43904709815979,
            0.10514061897993088,
            1.7246800661087036,
            -0.4240419864654541,
            -0.47567281126976013,
            -1.5863683223724365,
            -1.5222479104995728,
            1.4363024234771729,
            0.09749247133731842,
            -1.2140988111495972,
            -1.585731029510498,
            0.172103613615036,
            0.29734528064727783,
            0.5457823872566223,
            -1.4967930316925049,
            0.16628651320934296,
            -0.5258337259292603,
            1.995152473449707,
            0.6627222895622253,
            -1.4432756900787354,
            0.5073758363723755,
            -0.03786372020840645,
            0.7945696115493774,
            -0.9048224687576294,
            -0.911453366279602,
            -0.8081933259963989,
            -0.9441452622413635,
            0.5170676112174988,
            -0.5824936032295227,
            -0.5024557113647461,
            0.6994284391403198,
            1.1405001878738403,
            0.49470752477645874,
            0.6212551593780518,
            1.7875628471374512,
            0.7861939668655396,
            0.43478548526763916,
            -0.17245814204216003,
            -0.12033390998840332,
            -0.17857567965984344,
            1.2200733423233032,
            -1.0311682224273682,
            0.15625910460948944,
            0.27766117453575134,
            0.750834584236145,
            0.998457670211792,
            1.0138020515441895,
            -0.5124229788780212,
            1.0630433559417725,
            0.5823496580123901,
            -1.1631202697753906,
            -0.6074743866920471,
            -0.33346134424209595,
            -0.14868688583374023,
            -0.5365257263183594,
            -0.2674406170845032,
            0.18727080523967743,
            1.4114792346954346,
            0.054392121732234955,
            2.0883584022521973,
            0.7610717415809631,
            1.3231849670410156,
            0.38221076130867004,
            0.5558986067771912,
            -0.2425817996263504,
            1.1780498027801514,
            0.95756596326828,
            -0.5603367686271667,
            0.9146530032157898,
            -0.8956159353256226,
            -0.7542587518692017,
            1.574575662612915,
            0.2846020758152008,
            0.7539790868759155,
            0.5734763145446777,
            0.706203043460846,
            0.39041668176651,
            -0.6870012879371643,
            0.5982887744903564,
            0.9486764073371887,
            -1.3446369171142578,
            -0.870941162109375,
            1.2618873119354248,
            -1.941693902015686,
            -1.4235045909881592,
            -0.13925513625144958,
            -1.304891586303711,
            1.6643023490905762,
            0.07674941420555115,
            -0.6568631529808044,
            -1.404660940170288,
            0.6658440232276917,
            -0.3242427408695221,
            -0.5878453850746155,
            0.2563922703266144,
            0.2733771800994873,
            -0.7595186829566956,
            1.3554210662841797,
            0.08359898626804352,
            -0.9455865621566772,
            -1.1322308778762817,
            -1.284913420677185,
            -0.027790769934654236,
            -0.7017428874969482,
            -0.7932103276252747,
            0.05515462905168533,
            0.29104432463645935,
            -0.9638742208480835,
            -1.165132761001587,
            -1.7642368078231812,
            0.18286225199699402,
            1.0653451681137085,
            0.5638531446456909,
            0.45200425386428833,
            -0.46486303210258484,
            0.5360094308853149,
            -1.3690850734710693,
            0.06429260969161987,
            0.4062303900718689,
            -0.8421719074249268,
            0.7654679417610168,
            0.88279128074646,
            0.2173277735710144,
            -0.3962228298187256,
            -0.4139615297317505,
            -0.5859606862068176,
            -0.794687032699585,
            -0.3121900260448456,
            -1.107181429862976,
            0.3941550850868225,
            -0.27479439973831177,
            -0.6353378295898438,
            -1.9370086193084717,
            -1.5954042673110962,
            -0.9300333261489868,
            0.1969587206840515,
            -0.2353571206331253,
            0.6588588953018188,
            -0.4418167769908905,
            -1.536824107170105,
            -0.7831417918205261,
            -1.468355417251587,
            -0.7442378997802734,
            0.03679530322551727,
            -0.7807586193084717,
            -1.4986532926559448,
            0.4687499403953552,
            0.785272479057312,
            1.2731791734695435,
            -0.48949527740478516,
            -0.3145443797111511,
            0.12342655658721924,
            -0.24306902289390564,
            -0.2828272581100464,
            1.4064170122146606,
            1.0145184993743896,
            1.1878927946090698,
            0.34408289194107056,
            0.6078709363937378,
            0.5746575593948364,
            -0.6837969422340393,
            0.6998035311698914,
            0.45477762818336487,
            -0.8218252658843994,
            0.3595985770225525,
            -1.6088941097259521,
            -1.682828664779663,
            -0.10617347061634064,
            -0.7534792423248291,
            -0.9657877683639526,
            -0.9028582572937012,
            -0.4301261901855469,
            0.7413358092308044,
            -1.2390806674957275,
            0.6963058710098267,
            0.011461831629276276,
            -1.2201045751571655,
            0.8322566747665405,
            -1.4220585823059082,
            -0.2953726649284363,
            -0.5906662940979004,
            0.8730692863464355,
            -0.22263137996196747,
            1.1651175022125244,
            1.1518465280532837,
            0.8204294443130493,
            -0.49220824241638184,
            0.6963610649108887,
            -1.4732921123504639,
            -1.4226558208465576,
            -0.697097897529602,
            -1.1692107915878296,
            -1.6753627061843872,
            1.218674659729004,
            0.9620668888092041,
            -0.727349042892456,
            -1.2452665567398071,
            -1.9798212051391602,
            1.4650282859802246,
            -0.9611148834228516,
            1.0463433265686035,
            -1.4091670513153076,
            1.399721384048462,
            0.35986989736557007,
            0.4476129412651062,
            1.4609099626541138,
            -0.8809859156608582,
            -0.7033257484436035,
            -0.9973493814468384,
            1.3295650482177734,
            -1.3610936403274536,
            -1.3909621238708496,
            0.08579336106777191,
            -1.2573100328445435,
            -0.9291284084320068,
            -0.3638043999671936,
            -0.8294274806976318,
            -1.121364951133728,
            -0.34557196497917175,
            -0.7441540956497192,
            0.20419366657733917,
            -0.032316748052835464,
            -0.5062210559844971,
            0.6445045471191406,
            -1.5337166786193848,
            -0.6525672078132629,
            0.2272501289844513,
            0.40103429555892944,
            0.6869237422943115,
            0.935802698135376,
            -0.49159669876098633,
            -0.4550936818122864,
            1.8583827018737793,
            -0.6855379343032837,
            -1.7856941223144531,
            0.21607889235019684,
            0.7892215847969055,
            -1.0844759941101074,
            -1.0352381467819214,
            1.116386890411377,
            1.3344312906265259,
            1.5210466384887695,
            -0.07600647956132889,
            -0.6385698914527893,
            0.28056198358535767,
            -1.4758031368255615,
            -0.2924685478210449,
            -0.915298342704773,
            -1.2498217821121216,
            -0.4038862884044647,
            0.1359940618276596,
            0.37009599804878235,
            0.3990998864173889,
            -0.7904917597770691,
            0.3301086723804474,
            -0.4925358295440674,
            -0.2549070417881012,
            -1.0202561616897583,
            -0.01865643449127674,
            -1.2887370586395264,
            0.34519511461257935,
            1.276708722114563,
            -1.386540174484253,
            -0.27418696880340576,
            -0.31024253368377686,
            0.12917491793632507,
            1.2270795106887817,
            -0.5670901536941528,
            0.8290848731994629,
            -0.4401780664920807,
            0.9162953495979309,
            -1.3347316980361938,
            1.078158974647522,
            -0.19194132089614868,
            0.3554871678352356,
            1.6897248029708862,
            0.9257611632347107,
            1.6722006797790527,
            1.4513168334960938,
            -0.30112722516059875,
            0.5870375037193298,
            0.7964780330657959,
            -1.2333924770355225,
            -1.210764765739441,
            -0.8128397464752197,
            -0.5247311592102051,
            -1.0998013019561768,
            0.3940061330795288,
            -1.0729337930679321,
            -0.31237083673477173,
            -0.6452652215957642,
            -0.4087188243865967,
            1.5356289148330688,
            -0.6777917742729187,
            -0.4866025447845459,
            -2.1112821102142334,
            -0.3627987205982208,
            0.7918457984924316,
            -0.7634326219558716,
            1.960693120956421,
            1.070425271987915,
            0.7729554176330566,
            -0.3395814895629883,
            0.47181782126426697,
            -0.8375130891799927,
            0.038261622190475464,
            -1.6319904327392578,
            0.01906896010041237,
            -0.32992810010910034,
            -0.18774358928203583,
            0.8965413570404053,
            -0.5093536376953125,
            0.6393224000930786,
            0.7056588530540466,
            0.09754867106676102,
            0.7874681949615479,
            0.2146839201450348,
            -0.6873165369033813,
            1.9758427143096924,
            -0.5131576061248779,
            1.134100079536438,
            0.5745317935943604,
            -0.03482950106263161,
            -0.1036825180053711,
            -0.8519299030303955,
            0.26619577407836914,
            -0.5122604966163635,
            0.8629849553108215,
            0.8473717570304871,
            -0.8452164530754089,
            -1.708585500717163,
            0.548964262008667,
            0.9005186557769775,
            1.1792486906051636,
            -0.7901983857154846,
            0.7092828154563904,
            -1.2961100339889526,
            0.09166465699672699,
            -1.1687144041061401,
            0.8675522804260254,
            0.8434419631958008,
            -0.5444309711456299,
            1.2637481689453125,
            0.7851173877716064,
            0.530368447303772,
            0.2681935131549835,
            0.6372430920600891,
            1.1040796041488647,
            1.0694681406021118,
            -0.9393874406814575,
            1.8155674934387207,
            0.07451383769512177,
            1.4516712427139282,
            -0.004454845562577248,
            -1.3729255199432373,
            0.9819141030311584,
            0.2718322277069092,
            -1.7111338376998901,
            -1.1076167821884155,
            0.9913507699966431,
            0.9672967195510864,
            -0.3599335253238678,
            0.26029521226882935,
            0.9584656357765198,
            -0.4640829563140869,
            1.246508240699768,
            -0.8359856605529785,
            -1.0105886459350586,
            -0.7572922706604004,
            1.2957333326339722,
            -0.11564967036247253,
            1.0199894905090332,
            -0.6239572167396545,
            -0.07461953908205032,
            -1.044753909111023,
            -0.18647697567939758,
            -0.3141542971134186,
            -0.3626035153865814,
            -0.3524723947048187,
            0.02804940938949585,
            0.7501408457756042,
            -0.6755114793777466,
            -0.8445382714271545,
            0.05552437901496887,
            0.8808236122131348,
            1.459299087524414,
            -0.4349866509437561,
            -0.012388128787279129,
            1.062307596206665,
            -0.1424560248851776,
            0.664862334728241,
            -0.6718223094940186,
            -1.8190488815307617,
            0.5693289637565613,
            -1.2028881311416626,
            -0.31800583004951477,
            -0.6407243609428406,
            0.6120135188102722,
            0.9264528751373291,
            0.287887305021286,
            -0.1956310123205185,
            0.2779618203639984,
            1.0477747917175293,
            -0.6970077157020569,
            -0.5364927053451538,
            0.8680572509765625,
            1.7758959531784058,
            -0.3085370659828186,
            -0.06060124933719635,
            -0.4024864733219147,
            -1.7151968479156494,
            0.06795583665370941,
            0.2979312539100647,
            0.2640586793422699,
            0.9378517270088196,
            0.7540459632873535,
            0.8539906144142151,
            1.8006908893585205,
            1.1521309614181519,
            0.7282192707061768,
            0.9384662508964539,
            -0.42997124791145325,
            0.3096199631690979,
            0.9961103796958923,
            0.7088421583175659,
            -1.5910612344741821,
            0.4245223104953766,
            0.24597956240177155,
            -1.2526167631149292,
            -0.952826738357544,
            0.48342740535736084,
            -1.296947717666626,
            0.46513837575912476,
            0.5760253071784973,
            -0.7296184301376343,
            0.7711032629013062,
            0.06308454275131226,
            -0.43478232622146606,
            0.9437860250473022,
            1.9502217769622803,
            0.04470684006810188,
            1.015899896621704,
            -0.7493767738342285,
            -0.2611764669418335,
            -0.35177943110466003,
            -0.10052389651536942,
            -0.7618162631988525,
            1.0913141965866089,
            -1.0758795738220215,
            -0.7245522737503052,
            0.46683377027511597,
            -1.4943240880966187,
            0.4389737546443939,
            -0.26868656277656555,
            0.999523937702179,
            0.5250951647758484,
            0.8434491157531738,
            1.062781572341919,
            0.40045902132987976,
            -0.4086289405822754,
            -0.10815796256065369,
            -1.624812364578247,
            -0.9170508980751038,
            -0.08233066648244858,
            1.285737156867981,
            0.2541441023349762,
            -0.4232737720012665,
            -1.1044325828552246,
            0.7300555109977722,
            0.5589277744293213,
            -1.3406835794448853,
            -0.23018905520439148,
            -1.655189037322998,
            0.49604570865631104,
            0.8424162864685059,
            0.5255069732666016,
            -1.1232457160949707,
            -0.7058174014091492,
            0.7849222421646118,
            1.1060253381729126,
            -1.5372170209884644,
            -1.4139472246170044,
            0.6225301027297974,
            0.533020555973053,
            1.224184274673462,
            -0.5058795809745789,
            -0.4687672257423401,
            0.6699004769325256,
            0.6854088306427002,
            1.3966026306152344,
            0.9253795146942139,
            0.7312894463539124,
            -1.323731541633606,
            -1.242143154144287,
            -0.041072700172662735,
            0.4505210518836975,
            -1.0936449766159058,
            -0.10560756921768188,
            -0.04441089555621147,
            -1.0388010740280151,
            0.5316678285598755,
            -0.007887185551226139,
            -1.7938218116760254,
            0.45813411474227905,
            0.2813226580619812,
            0.7202869653701782,
            -0.06161053106188774,
            -1.009082317352295,
            0.2949787676334381,
            -0.12629742920398712,
            -1.0636520385742188,
            -1.4167248010635376,
            -0.09454949200153351,
            -0.11994718015193939,
            1.183403730392456,
            0.23090404272079468,
            -0.9257609248161316,
            -0.5270068645477295,
            0.24810247123241425,
            0.7216378450393677,
            -1.7281101942062378,
            -0.4173573851585388,
            -0.1505037546157837,
            -1.4354915618896484,
            1.4893370866775513,
            1.6440796852111816,
            1.6082763671875,
            1.1902319192886353,
            -0.8430278301239014,
            1.7458419799804688,
            0.3667430281639099,
            -0.8031331300735474,
            -0.8607169389724731,
            1.5573607683181763,
            0.7717629671096802,
            1.3235321044921875,
            1.814605951309204,
            0.2073502242565155,
            -0.23767276108264923,
            0.5543767213821411,
            -0.8000661134719849,
            -0.11691946536302567,
            -0.33661380410194397,
            -0.43915361166000366,
            1.3373401165008545,
            0.020681306719779968,
            -0.6732204556465149,
            -0.37802350521087646,
            0.13279536366462708,
            0.1581306904554367,
            0.527292013168335,
            -0.1598639041185379,
            0.055255740880966187,
            -0.9305819272994995,
            -0.8387691378593445,
            -1.001697063446045,
            1.5247802734375,
            -1.5014889240264893,
            0.9266537427902222,
            0.8943208456039429,
            -1.0395046472549438,
            -0.15004995465278625,
            0.7813113927841187,
            -0.24639546871185303,
            0.4021752178668976,
            -0.06329287588596344,
            0.6280089020729065,
            0.6959599256515503,
            -0.27723073959350586,
            -1.0077311992645264,
            0.9872356653213501,
            1.5564558506011963,
            -1.2820026874542236,
            0.7574439644813538,
            0.996350109577179,
            0.058624934405088425,
            -0.03931580111384392,
            -0.1306685507297516,
            -1.4910060167312622,
            -0.3965016007423401,
            -0.8578726649284363,
            -1.5846116542816162,
            0.27986130118370056,
            0.3279363811016083,
            -0.5469499826431274,
            -0.7853207588195801,
            1.4283366203308105,
            1.13482666015625,
            0.6668426990509033,
            -0.6913641095161438,
            -1.4145967960357666,
            -0.8745777010917664,
            -0.6803668141365051,
            -0.6737417578697205,
            -0.8757752776145935,
            -1.1535835266113281,
            -1.617004632949829,
            -1.6339449882507324,
            -1.084169626235962,
            -1.397493600845337,
            0.6508550643920898,
            -1.571716547012329,
            -1.7901182174682617,
            -0.7306981682777405,
            0.9382620453834534,
            1.2049109935760498,
            0.2271394282579422,
            0.024109456688165665,
            -0.7875109314918518,
            -0.9069944620132446,
            1.0287903547286987,
            0.025901824235916138,
            -0.010156925767660141,
            1.0535805225372314,
            -0.710240364074707,
            -1.3220717906951904,
            1.2233151197433472,
            1.5069342851638794,
            1.9510526657104492,
            0.4780736565589905,
            -0.759081244468689,
            -0.10962039977312088,
            0.44393718242645264,
            -0.802498996257782,
            -0.4688382148742676,
            1.879724383354187,
            -0.7798224687576294,
            0.6300077438354492,
            0.08061432093381882,
            -0.4995808005332947,
            0.21237042546272278,
            -1.2623287439346313,
            1.0417269468307495,
            -0.4791954457759857,
            1.326608419418335,
            1.569696068763733,
            0.965053379535675,
            -0.6761353015899658,
            -0.664188802242279,
            0.04284568130970001,
            -0.2725946605205536,
            0.49157142639160156,
            1.8765721321105957,
            0.9581848382949829,
            0.5543109178543091,
            -0.6230407953262329,
            1.5064228773117065,
            -0.6109269261360168,
            0.4580893814563751,
            0.5971043109893799,
            -0.9633591771125793,
            -1.05451238155365,
            0.24440500140190125,
            -1.7295186519622803,
            -1.2964794635772705,
            -0.9132013320922852,
            -1.4564502239227295,
            1.2102415561676025,
            0.4050617814064026,
            -0.030571801587939262,
            -0.9475195407867432,
            -0.698068380355835,
            -0.06574874371290207,
            1.1056268215179443,
            1.3845386505126953,
            -0.788878321647644,
            -0.7999103665351868,
            0.6814465522766113,
            0.8754527568817139,
            -0.9303761720657349,
            0.48514240980148315,
            0.3377525806427002,
            0.3027549982070923,
            -1.200019359588623,
            0.6920881271362305,
            -1.2538228034973145,
            0.5437876582145691,
            -1.5788888931274414,
            1.1995503902435303,
            -1.8295331001281738,
            0.52027827501297,
            -1.149234414100647,
            -0.29232820868492126,
            0.6329816579818726,
            1.8094199895858765,
            0.12381559610366821,
            -1.5902624130249023,
            -0.7432058453559875,
            1.3973195552825928,
            -0.6043862104415894,
            -0.10567358881235123,
            -0.24172872304916382,
            -0.3023332953453064,
            0.6023449897766113,
            1.3237953186035156,
            0.6297644376754761,
            0.30842432379722595,
            -0.07700467854738235,
            -0.7470381259918213,
            1.3396906852722168,
            -0.565636157989502,
            0.05493047833442688,
            -0.3624090850353241,
            -0.24859774112701416,
            1.5772860050201416,
            0.20796693861484528,
            1.493328332901001,
            -1.6189075708389282,
            1.7557320594787598,
            -0.011702697724103928,
            -0.07059476524591446,
            -1.6159313917160034,
            1.2297106981277466,
            -0.45736145973205566,
            -0.7897778749465942,
            -1.3693023920059204,
            -0.20191118121147156,
            0.10894719511270523,
            0.6484573483467102,
            -0.8460668325424194,
            -0.8740374445915222,
            -0.8103806972503662,
            -0.9286100268363953,
            -0.15417532622814178,
            0.6544201970100403,
            0.9006562232971191,
            -0.09215070307254791,
            0.08558525145053864,
            1.0623915195465088,
            -0.5099303722381592,
            -0.6387861967086792,
            -0.44410210847854614,
            0.6318390369415283,
            0.1155080646276474,
            -1.3554118871688843,
            0.9953802824020386,
            -0.1979132890701294,
            -1.7163422107696533,
            0.4488103985786438,
            -1.4650890827178955,
            0.7600913047790527,
            -0.8697564005851746,
            -1.1917661428451538,
            -1.5498327016830444,
            0.9100597500801086,
            0.14401482045650482,
            -0.36982691287994385,
            0.886920154094696,
            0.14502842724323273,
            -0.602755606174469,
            0.7958163022994995,
            -1.4028985500335693,
            -0.08479722589254379,
            -0.6795060038566589,
            1.4500867128372192,
            -1.7654024362564087,
            0.5784637928009033,
            -0.6342310309410095,
            0.49367454648017883,
            0.12254447489976883,
            1.846449851989746,
            1.5032589435577393,
            1.246566653251648,
            -1.1643999814987183,
            0.15936726331710815,
            1.289689302444458,
            0.24528764188289642,
            -0.20492461323738098,
            1.5232324600219727,
            0.7940869927406311,
            0.5506500005722046,
            0.32002830505371094,
            1.0718514919281006,
            -0.5054376125335693,
            -0.051852576434612274,
            0.9021974802017212,
            -1.540195345878601,
            1.5485097169876099,
            -0.30651766061782837,
            -1.3301222324371338,
            0.1508631706237793,
            -0.42727386951446533,
            -1.0166577100753784,
            1.2050113677978516,
            0.48602527379989624,
            -0.40912026166915894,
            0.9355323314666748,
            1.225379467010498,
            1.871484637260437,
            -0.8013010025024414,
            0.8040468692779541,
            0.7029281854629517,
            1.0094448328018188,
            -0.4741054177284241,
            0.8385674953460693,
            -0.7227078080177307,
            0.9095385074615479,
            0.021737197414040565,
            0.5293867588043213,
            -0.3593931794166565,
            -1.3350027799606323,
            -1.274204969406128,
            -1.6942633390426636,
            -0.016320863738656044,
            0.17866626381874084,
            -1.9019978046417236,
            1.1162053346633911,
            0.2262912541627884,
            -0.3906513750553131,
            -1.428370714187622,
            1.1336008310317993,
            -0.7314997315406799,
            -1.137503981590271,
            0.09344357252120972,
            -0.159483402967453,
            0.2366521656513214,
            -0.057442691177129745,
            -0.49491092562675476,
            -0.8006711006164551,
            1.0281827449798584,
            -0.8448875546455383,
            0.4387044310569763,
            0.6683847308158875,
            0.9845953583717346,
            0.7179824113845825,
            0.7990965843200684,
            -1.110938310623169,
            -0.28292733430862427,
            -0.46671631932258606,
            0.16278019547462463,
            0.6350401043891907,
            0.21458646655082703,
            -0.5794044733047485,
            -0.04841146990656853,
            0.10479864478111267,
            -0.9436755776405334,
            -1.7517030239105225,
            1.7925009727478027,
            0.7093161344528198,
            -0.05094698816537857,
            0.6052303910255432,
            -0.8409705758094788,
            -0.29795292019844055,
            0.24890215694904327,
            -2.3545186519622803,
            -0.4843778908252716,
            1.404285192489624,
            -0.33816203474998474,
            -1.4964555501937866,
            -0.9138518571853638,
            -0.818985104560852,
            0.5752385854721069,
            -1.1429035663604736,
            -0.5046445727348328,
            1.326039433479309,
            -1.3171660900115967,
            -0.8844790458679199,
            -1.508486270904541,
            -0.12303151190280914,
            0.3987186849117279,
            -1.605912685394287,
            0.62908935546875,
            -0.18592095375061035,
            -1.6236144304275513,
            -0.485810786485672,
            -0.33512917160987854,
            0.21357299387454987,
            -1.3064196109771729,
            -0.34292536973953247,
            -0.7175504565238953,
            -0.6395094990730286,
            -0.9716797471046448,
            -1.121649980545044,
            -0.3623042702674866,
            0.8904678225517273,
            -0.8080945014953613,
            -1.8097401857376099,
            -0.7179962396621704,
            -0.32545986771583557,
            -0.8364809155464172,
            0.34077122807502747,
            1.5748482942581177,
            -0.013303130865097046,
            -1.2624993324279785,
            -0.7259195446968079,
            0.8743366599082947,
            1.4150999784469604,
            1.0664868354797363,
            -0.8846880197525024,
            -0.2492072880268097,
            0.38556990027427673,
            -1.2238847017288208,
            1.2949976921081543,
            -0.06822763383388519,
            0.8193015456199646,
            -1.5825444459915161,
            0.9045366048812866,
            0.8530163168907166,
            -1.6390678882598877,
            0.48927727341651917,
            0.7025161385536194,
            -0.6962960362434387,
            0.34955379366874695,
            0.2341156005859375,
            1.9760404825210571,
            1.2906410694122314,
            -0.9173381328582764,
            -0.15319763123989105,
            1.539322018623352,
            -1.1522579193115234,
            -0.11029092967510223,
            0.7815974950790405,
            -0.590883195400238,
            0.7635882496833801,
            -1.466841220855713,
            -0.5821093320846558,
            1.157981038093567,
            -1.06895911693573,
            0.3950068950653076,
            -0.8463006615638733,
            -0.049048446118831635,
            -0.9093425273895264,
            0.0012977817095816135,
            1.0854077339172363,
            1.3173365592956543,
            -0.9141898155212402,
            -0.546963632106781,
            -0.6557126045227051,
            -0.7422316670417786,
            -0.9165974855422974,
            -0.5030956268310547,
            -1.205339789390564,
            -0.7697764039039612,
            0.32246366143226624,
            0.39883363246917725,
            1.709249496459961,
            0.44125640392303467,
            -0.6969021558761597,
            -0.10877002775669098,
            -0.6992828249931335,
            0.0020989221520721912,
            -0.6545742750167847,
            0.08219454437494278,
            -1.398797631263733,
            0.6629990935325623,
            -1.53862726688385,
            -0.29261329770088196,
            -0.49800652265548706,
            0.36800503730773926,
            -0.2210262417793274,
            -0.2763773202896118,
            -1.1515922546386719,
            -0.25930818915367126,
            -0.36542031168937683,
            -0.5341208577156067,
            -1.7674660682678223,
            1.1909101009368896,
            -1.6094300746917725,
            0.8450682163238525,
            -1.269702434539795,
            -1.3010730743408203,
            -1.3886706829071045,
            -0.1690041720867157,
            -1.007996678352356,
            -0.8620713949203491,
            -1.23087739944458,
            1.7801604270935059,
            1.318016529083252,
            0.9940688610076904,
            1.4410679340362549,
            1.2727274894714355,
            -0.5096698999404907,
            -0.18601594865322113,
            -1.2470568418502808,
            0.33914005756378174,
            -0.6828254461288452,
            0.38645491003990173,
            -0.3557393252849579,
            1.1173025369644165,
            -0.7160823345184326,
            1.4691369533538818,
            -1.4012858867645264,
            0.23304712772369385,
            1.5576186180114746,
            -0.5577081441879272,
            -0.428424209356308,
            -0.4878486692905426,
            0.7798547744750977,
            0.2532452940940857,
            -0.941575825214386,
            -0.6404706239700317,
            0.6052155494689941,
            0.20980674028396606,
            -0.30525705218315125,
            1.1057701110839844,
            -1.2490843534469604,
            -0.14868177473545074,
            -0.3654959201812744,
            0.5619040727615356,
            0.3890368938446045,
            -1.4288467168807983,
            0.8921312093734741,
            -0.7774940729141235,
            -0.8935078978538513,
            -0.4904387891292572,
            -0.40612462162971497,
            -0.1438545286655426,
            -0.5977859497070312,
            1.2618720531463623,
            -0.29872068762779236,
            1.1543803215026855,
            0.0746515691280365,
            0.540786623954773
          ],
          "epoch_grid": [
            0,
            10,
            20,
            30,
            40,
            50,
            60,
            70,
            80,
            90,
            100,
            110,
            120,
            130,
            140,
            150,
            160,
            170,
            180,
            190,
            200
          ],
          "estimator_name": "plm_minimax_debias_tracking",
          "factory_name": "make_plm_minimax_tracking_estimator",
          "is_oracle": true,
          "method_config": {
            "L": 3,
            "N": 512,
            "batch_size": 2048,
            "d": 3,
            "device": "cpu",
            "lambda_mu": 2e-05,
            "lambda_pi": 2e-05,
            "lr": 0.001,
            "niter": 200,
            "seed_mode": "trial_seed",
            "tracking_interval": 10,
            "tracking_source": "validation",
            "validation_n": 2048,
            "variance_mode": "constant_one"
          },
          "mu_mse": 0.29775473715801365,
          "mu_mse_path": [
            0.35418957471847534,
            0.3154761791229248,
            0.1677110195159912,
            0.09713981300592422,
            0.09665524214506149,
            0.10095962136983871,
            0.10217145830392838,
            0.11207140237092972,
            0.12606191635131836,
            0.15749762952327728,
            0.15806837379932404,
            0.2254730761051178,
            0.5745031833648682,
            0.23824863135814667,
            0.21786817908287048,
            0.27554556727409363,
            0.290886789560318,
            0.18936675786972046,
            0.24283796548843384,
            0.517620325088501,
            0.29838037490844727
          ],
          "mu_pi_product_mean": 0.2882923881954142,
          "mu_pi_product_mse": 0.27626566925984036,
          "mu_pi_product_true_mean": 0.4024438601122836,
          "nuisance_error_corr": 0.16187276354293878,
          "oracle_residual_corr": 0.046894755593073045,
          "pi_mse": 0.27767932773541937,
          "runtime_sec": 37.15266495800461,
          "tracking_interval": 10,
          "tracking_n": 2048,
          "tracking_split": "validation"
        }
      ],
      "test_seed": 2,
      "train_seed": 1,
      "trial_id": 0,
      "trial_seed": 0,
      "validation_seed": 3
    },
    {
      "beta_true": -0.082977995297426,
      "dgp_config": {
        "beta_high": 0.5,
        "beta_low": -0.5,
        "beta_sampler_name": "uniform",
        "d": 3,
        "func_mu_name": "experiment_1_7_5_mu",
        "func_pi_name": "experiment_1_7_5_pi_1",
        "n": 2048,
        "n_test": 10000,
        "sigma_eps": 1.7320508075688772,
        "sigma_u": 1.7320508075688772
      },
      "dgp_name": "partial_linear_uniform_noise",
      "estimator_results": [
        {
          "beta_hat": -0.0481778085231781,
          "beta_init_sq_error": 0.0012110529995225383,
          "beta_initial": -0.0481778085231781,
          "beta_path": [
            0.0196347925812006,
            0.014225837774574757,
            -0.01815790869295597,
            -0.02911478281021118,
            -0.03258100897073746,
            -0.04090404510498047,
            -0.04378113895654678,
            -0.04624032601714134,
            -0.046280842274427414,
            -0.058321062475442886,
            -0.025104500353336334,
            -0.038284242153167725,
            -0.04235372692346573,
            -0.05739865452051163,
            -0.031436435878276825,
            -0.0349995382130146,
            -0.05309861898422241,
            -0.045340411365032196,
            -0.06801452487707138,
            -0.07917945086956024,
            -0.0481778085231781
          ],
          "beta_sq_error": 0.0012110529995225383,
          "beta_sq_error_path": [
            0.010529384236224017,
            0.009448585163889387,
            0.004201643627410995,
            0.0029012456594428543,
            0.0025398562308124317,
            0.0017702172847963874,
            0.001536393547007523,
            0.001349656344147571,
            0.0013466810399933742,
            0.0006079643361877881,
            0.003349341417043572,
            0.0019975315701198965,
            0.0016503311809195485,
            0.0006543026745815144,
            0.002656532347357685,
            0.002301932344200706,
            0.0008927771288660315,
            0.0014165877242679882,
            0.00022390544702082763,
            1.4428939770469997e-05,
            0.0012110529995225383
          ],
          "debias_weights": [
            0.5023566484451294,
            -0.21187961101531982,
            -0.43792521953582764,
            -0.5415047407150269,
            -0.0349544882774353,
            -0.6435198187828064,
            -0.7123276591300964,
            -0.2441013604402542,
            -0.30313265323638916,
            -1.4660369157791138,
            -0.29629194736480713,
            -0.6925976872444153,
            1.4325501918792725,
            -0.6303774118423462,
            -0.3258717358112335,
            -0.93480384349823,
            0.47896766662597656,
            -0.6487866640090942,
            -0.07056272774934769,
            0.4477885961532593,
            1.3925586938858032,
            -1.4192752838134766,
            -1.7416130304336548,
            0.29029765725135803,
            0.6915731430053711,
            -0.3025358021259308,
            0.107087641954422,
            -1.5460004806518555,
            -0.3579998314380646,
            0.23509718477725983,
            0.3495805263519287,
            0.7604672908782959,
            -0.26760435104370117,
            0.4023171663284302,
            -1.060747742652893,
            -1.2041245698928833,
            -0.7825933694839478,
            -0.5902734994888306,
            -1.0853723287582397,
            -1.0247793197631836,
            -1.3623018264770508,
            -0.7848368883132935,
            0.8714807629585266,
            -0.3048192858695984,
            -0.9155445098876953,
            0.12477084994316101,
            1.441141128540039,
            -0.14368893206119537,
            -1.9356305599212646,
            1.61550772190094,
            -1.6415445804595947,
            -0.606471598148346,
            -0.4903549253940582,
            -0.9105936288833618,
            -1.3889846801757812,
            1.4688403606414795,
            1.150144338607788,
            -1.1066267490386963,
            0.0446275994181633,
            0.8277518153190613,
            -0.2483198195695877,
            1.1352965831756592,
            -1.475420594215393,
            0.9977192282676697,
            0.8164333701133728,
            0.2276066094636917,
            0.4925096035003662,
            0.6739550828933716,
            0.24143770337104797,
            -0.968146026134491,
            -0.1480131447315216,
            0.7869932055473328,
            -1.4076032638549805,
            -1.2251732349395752,
            0.570758581161499,
            1.131729006767273,
            0.3777685761451721,
            -1.3385279178619385,
            0.01968326047062874,
            -0.713804304599762,
            1.0158849954605103,
            1.7805118560791016,
            -2.077341318130493,
            1.095766305923462,
            -0.13935637474060059,
            0.0034041614271700382,
            0.6756038665771484,
            0.10697592794895172,
            -0.792350709438324,
            1.0372397899627686,
            -0.13963864743709564,
            -0.3082830309867859,
            -0.4051533639431,
            -0.7663185596466064,
            -0.12354736030101776,
            -0.7518373727798462,
            0.26712697744369507,
            -0.13367308676242828,
            1.350409746170044,
            -0.47839176654815674,
            -0.17857728898525238,
            -0.43701618909835815,
            -1.3594425916671753,
            1.0726900100708008,
            -0.19187121093273163,
            1.562696099281311,
            -0.8532842993736267,
            -0.856715977191925,
            0.26564139127731323,
            -0.35553333163261414,
            0.8376604318618774,
            0.2471642792224884,
            -0.44755664467811584,
            -0.4717063307762146,
            -0.36036625504493713,
            0.15529650449752808,
            -0.5032510757446289,
            -2.1168389320373535,
            -1.6345340013504028,
            0.4098378121852875,
            -0.5484322309494019,
            -0.8610988855361938,
            -0.12304873764514923,
            -0.3546803891658783,
            0.49334466457366943,
            -0.0643748864531517,
            0.6506177186965942,
            0.08678330481052399,
            0.1426267772912979,
            0.6162018775939941,
            0.6465575695037842,
            0.8003756403923035,
            1.4119242429733276,
            1.1499618291854858,
            1.3283216953277588,
            0.19040557742118835,
            -0.98356693983078,
            0.014535147696733475,
            1.0005359649658203,
            0.9337903261184692,
            -0.7420265078544617,
            -0.5986505150794983,
            0.5785052180290222,
            0.03188341483473778,
            0.3987637460231781,
            1.2157083749771118,
            -1.3253074884414673,
            0.7278827428817749,
            -0.7769849896430969,
            0.3222835659980774,
            -0.25654274225234985,
            -0.6219117641448975,
            -0.37134093046188354,
            -0.7491912841796875,
            -1.773700475692749,
            0.003707027528434992,
            0.46655938029289246,
            -0.3179054260253906,
            -1.3889415264129639,
            -0.7360910773277283,
            -0.9910175800323486,
            1.7913565635681152,
            -0.22202110290527344,
            0.47021645307540894,
            -0.7179440259933472,
            0.7068053483963013,
            0.6084508895874023,
            -0.5824894905090332,
            0.7225416898727417,
            -0.8724257349967957,
            -1.9082179069519043,
            -1.0792236328125,
            -0.05765465646982193,
            -1.6340041160583496,
            -1.0702791213989258,
            -1.6747221946716309,
            -0.2909109592437744,
            -0.23343715071678162,
            0.017956305295228958,
            0.7563766837120056,
            -0.8742091655731201,
            -0.35933348536491394,
            -0.2864260971546173,
            1.0049302577972412,
            -0.19224515557289124,
            -0.7293353080749512,
            -0.6461384892463684,
            -0.1638619750738144,
            0.04000630974769592,
            -1.2004389762878418,
            1.4349496364593506,
            0.5052003860473633,
            -0.376411497592926,
            -0.14612728357315063,
            -1.4752978086471558,
            -0.7647432088851929,
            -1.4766426086425781,
            0.9889897108078003,
            0.49010947346687317,
            -0.17324376106262207,
            1.065824270248413,
            -0.2550615966320038,
            1.4218177795410156,
            0.8717812299728394,
            -0.11225298047065735,
            -0.49491918087005615,
            0.0021734426263719797,
            -0.6314516663551331,
            0.9863699674606323,
            1.2779802083969116,
            0.3333505690097809,
            0.5506461262702942,
            0.25874581933021545,
            -0.16005255281925201,
            0.6406705379486084,
            -0.9943500757217407,
            0.40229302644729614,
            1.3611538410186768,
            -1.5176715850830078,
            -0.25509151816368103,
            0.7767901420593262,
            -1.764678955078125,
            -0.2853913903236389,
            -1.4043736457824707,
            0.8818533420562744,
            0.40352773666381836,
            -1.0021110773086548,
            -1.458528757095337,
            -1.3726884126663208,
            0.9066306948661804,
            -1.8599750995635986,
            1.7817256450653076,
            -0.3445205092430115,
            0.25093209743499756,
            0.23361951112747192,
            -0.7085626125335693,
            0.1893184334039688,
            1.0172698497772217,
            0.04598222300410271,
            -0.0035539413802325726,
            0.37787723541259766,
            1.0472288131713867,
            0.4137941896915436,
            -0.3603990077972412,
            -0.9133099317550659,
            0.11206899583339691,
            0.262401819229126,
            -0.4207335114479065,
            0.1303832083940506,
            -0.26955899596214294,
            -0.6090170741081238,
            0.5976094007492065,
            -0.5266909599304199,
            0.4429577589035034,
            -1.5808604955673218,
            1.9090336561203003,
            0.4745888411998749,
            0.3590126633644104,
            -0.5948201417922974,
            1.0823867321014404,
            -0.2604033350944519,
            0.5191562175750732,
            1.433509111404419,
            -0.48690831661224365,
            0.8982523679733276,
            0.9645495414733887,
            -1.171997308731079,
            -1.5938048362731934,
            0.7205089926719666,
            -1.118928074836731,
            0.44884324073791504,
            1.6439323425292969,
            0.7218902111053467,
            0.24895967543125153,
            -0.054329823702573776,
            1.401138186454773,
            0.7285799980163574,
            -0.5177666544914246,
            -0.3689882159233093,
            0.15570661425590515,
            1.5076384544372559,
            -0.34211432933807373,
            0.1622336208820343,
            -0.33219364285469055,
            0.4996849298477173,
            -0.6393759250640869,
            1.825829267501831,
            0.19443541765213013,
            0.9383869171142578,
            -1.3000028133392334,
            0.6562367081642151,
            0.2600588798522949,
            -1.4006688594818115,
            0.9675719738006592,
            0.9177124500274658,
            1.9895331859588623,
            0.5148084163665771,
            0.47462010383605957,
            0.004087947309017181,
            0.6785579919815063,
            -0.3358444273471832,
            0.7877960801124573,
            -0.009261230006814003,
            0.6878985166549683,
            -0.41683879494667053,
            -0.8172479271888733,
            1.3579435348510742,
            0.1486952304840088,
            -0.46406179666519165,
            1.0521434545516968,
            0.23826512694358826,
            0.4866050183773041,
            0.6551221013069153,
            -0.3638642728328705,
            -0.8675473928451538,
            -0.5631036758422852,
            -0.9291049242019653,
            -0.2497652769088745,
            -1.5786800384521484,
            -0.058868709951639175,
            0.05741395801305771,
            1.1787227392196655,
            0.8184468150138855,
            0.33423009514808655,
            1.2180171012878418,
            1.3851560354232788,
            -0.4166829586029053,
            0.22153200209140778,
            -1.1588770151138306,
            0.8291219472885132,
            1.0961920022964478,
            -1.0168120861053467,
            -0.5095716118812561,
            -0.8621507287025452,
            0.24749469757080078,
            0.42000260949134827,
            -0.5478019714355469,
            -0.5380656123161316,
            -0.49631279706954956,
            -2.017033100128174,
            -0.5311309099197388,
            1.0970062017440796,
            -1.5579403638839722,
            -0.11417613178491592,
            1.3558590412139893,
            0.7176417708396912,
            -0.5600597262382507,
            0.35270029306411743,
            -0.9841685891151428,
            -1.1732873916625977,
            -0.7717111110687256,
            1.065625786781311,
            1.2156202793121338,
            -0.3934071958065033,
            -0.8632169961929321,
            -0.7498660683631897,
            -0.09236254543066025,
            -0.915440559387207,
            -0.6382545828819275,
            -0.7459921836853027,
            -0.061238646507263184,
            1.5608859062194824,
            1.5665985345840454,
            -0.7894629836082458,
            0.496172159910202,
            0.9537041187286377,
            0.40563222765922546,
            -1.621551275253296,
            -1.354768991470337,
            -1.343228816986084,
            1.5206223726272583,
            2.121879816055298,
            0.6878158450126648,
            1.7473523616790771,
            -1.0882184505462646,
            -0.0655355378985405,
            -1.2680189609527588,
            0.30026352405548096,
            0.16891808807849884,
            1.174135684967041,
            0.45874130725860596,
            -1.4065049886703491,
            1.8094956874847412,
            -1.2204430103302002,
            0.8201802968978882,
            -1.2607266902923584,
            -0.8393278121948242,
            -0.9349226355552673,
            -0.1112319678068161,
            -1.2559058666229248,
            1.8691623210906982,
            -0.1683211326599121,
            -2.0608015060424805,
            -0.9199076294898987,
            0.20520886778831482,
            0.8945498466491699,
            1.2153398990631104,
            -0.8684535026550293,
            -1.4858641624450684,
            -1.1198782920837402,
            -0.5525028705596924,
            -0.3742141127586365,
            -1.8994455337524414,
            -1.1067042350769043,
            -0.7702583074569702,
            -1.6038758754730225,
            -1.5711181163787842,
            0.8858240246772766,
            -0.5402756333351135,
            -0.8794892430305481,
            -1.0456726551055908,
            1.1152689456939697,
            -1.7222447395324707,
            0.4536953866481781,
            -0.35013312101364136,
            1.0779085159301758,
            0.4068005084991455,
            -0.8859794735908508,
            -1.8132530450820923,
            -0.2469681203365326,
            1.1902155876159668,
            0.8368414640426636,
            0.39236295223236084,
            -0.9087737798690796,
            -1.2837458848953247,
            -1.5829355716705322,
            0.6266403198242188,
            0.9084408283233643,
            -0.07050522416830063,
            0.4113101661205292,
            0.19474875926971436,
            -0.24844197928905487,
            -1.2788333892822266,
            -0.19254037737846375,
            1.431747555732727,
            -0.9875022172927856,
            0.35954195261001587,
            -0.24477025866508484,
            -0.14388446509838104,
            -1.7007300853729248,
            -0.987718939781189,
            0.582615315914154,
            -1.761359691619873,
            -0.7384966611862183,
            -0.6073219776153564,
            -0.9457600712776184,
            -0.5903823971748352,
            -1.7259714603424072,
            -0.6037013530731201,
            0.27697449922561646,
            -1.7767300605773926,
            0.2877001166343689,
            -1.6063206195831299,
            0.7849864959716797,
            -0.7149162292480469,
            0.46979600191116333,
            0.6210039258003235,
            0.752159595489502,
            0.6136005520820618,
            -0.7783721685409546,
            0.9670166969299316,
            -0.26571035385131836,
            -0.0951784998178482,
            -0.13009370863437653,
            -0.3661402463912964,
            -0.35637322068214417,
            0.1065741553902626,
            -1.104204773902893,
            0.18260234594345093,
            -1.5084431171417236,
            1.0281901359558105,
            -1.4243577718734741,
            1.561083197593689,
            1.7700450420379639,
            -1.5410672426223755,
            0.7299521565437317,
            0.8286713361740112,
            -0.2670256495475769,
            -0.9386709928512573,
            0.8618797063827515,
            0.9244138598442078,
            1.3435962200164795,
            -1.5577061176300049,
            -1.7607660293579102,
            0.08714334666728973,
            0.04028133675456047,
            -0.7426958680152893,
            0.661138653755188,
            0.7249557375907898,
            -1.4522042274475098,
            0.34407490491867065,
            -0.07656160742044449,
            0.8859027028083801,
            -0.693777322769165,
            1.5072712898254395,
            0.05780421197414398,
            0.03370046988129616,
            0.6270804405212402,
            -0.1002548485994339,
            -0.9349918365478516,
            -0.18899673223495483,
            -0.005038093775510788,
            1.3841831684112549,
            0.75958251953125,
            -0.8467416763305664,
            0.7213373184204102,
            -0.5740146040916443,
            1.1856324672698975,
            0.0555136613547802,
            -1.0795618295669556,
            0.857650637626648,
            0.9467226266860962,
            -0.8270096182823181,
            0.06011183559894562,
            -0.4483225345611572,
            0.849846601486206,
            0.85797119140625,
            1.467199444770813,
            0.8179889917373657,
            1.1572341918945312,
            1.034893274307251,
            0.7056206464767456,
            -0.5293905138969421,
            -1.0684471130371094,
            -0.026693008840084076,
            0.6846902370452881,
            1.6081314086914062,
            0.5140403509140015,
            -0.8946812748908997,
            -0.1857568919658661,
            1.1351327896118164,
            0.11058766394853592,
            1.5007323026657104,
            -0.06096399575471878,
            -0.4973813593387604,
            0.43623441457748413,
            1.323179006576538,
            0.5178294777870178,
            -0.2836298644542694,
            -0.39045780897140503,
            -1.6097813844680786,
            0.23673084378242493,
            -1.3878835439682007,
            1.067581057548523,
            -1.1835317611694336,
            -0.7940072417259216,
            -0.7096272706985474,
            0.4802429974079132,
            -0.6266217827796936,
            -1.0279799699783325,
            0.29989853501319885,
            0.4356915056705475,
            0.9487177133560181,
            0.3139839172363281,
            0.5717246532440186,
            1.1311856508255005,
            -2.2702784538269043,
            -0.4348708689212799,
            1.6986103057861328,
            -1.0867218971252441,
            1.1253600120544434,
            -0.39040011167526245,
            -0.5248302817344666,
            -1.1237813234329224,
            -0.7136220335960388,
            0.5570788383483887,
            0.10399629175662994,
            -1.4505512714385986,
            0.282298743724823,
            -0.20140212774276733,
            -0.06771279871463776,
            -0.5898960828781128,
            0.4932309687137604,
            -0.17202065885066986,
            1.7607420682907104,
            -1.3236565589904785,
            1.0533093214035034,
            0.4652961492538452,
            1.0327831506729126,
            0.18135905265808105,
            0.6900555491447449,
            -0.47125086188316345,
            -0.444835364818573,
            -1.130715250968933,
            0.7298074960708618,
            0.13364183902740479,
            0.9174249172210693,
            -1.4080123901367188,
            -0.9967306852340698,
            -0.05014298856258392,
            1.0207221508026123,
            0.9480274319648743,
            -0.9687196612358093,
            -0.03614562749862671,
            -1.808228611946106,
            1.0065289735794067,
            -1.7562223672866821,
            0.13586606085300446,
            -0.21731600165367126,
            -1.401397466659546,
            -0.5022411346435547,
            -1.2171874046325684,
            0.9483240842819214,
            -1.4107718467712402,
            -0.8727086186408997,
            0.4937155544757843,
            1.571979284286499,
            -1.0325114727020264,
            0.5925729274749756,
            0.46101126074790955,
            0.43379589915275574,
            -0.977722704410553,
            1.6566561460494995,
            0.717831552028656,
            -1.5112589597702026,
            1.5347176790237427,
            0.8783826231956482,
            0.2222970724105835,
            0.31294184923171997,
            -0.0631408840417862,
            -0.5354979038238525,
            -0.21515966951847076,
            1.0175888538360596,
            -0.8993980884552002,
            1.4933726787567139,
            0.1532048135995865,
            0.24127034842967987,
            -1.3396427631378174,
            0.5247582197189331,
            -0.9883188605308533,
            -0.7505930662155151,
            -0.38412904739379883,
            0.16279013454914093,
            0.6959200501441956,
            0.3051624000072479,
            0.3762701153755188,
            0.7408798336982727,
            0.987948477268219,
            -0.78997802734375,
            -1.3596969842910767,
            0.9175765514373779,
            -0.08919325470924377,
            -0.004123960621654987,
            -1.1426187753677368,
            -0.32296305894851685,
            1.0525565147399902,
            -0.6807723045349121,
            -0.0534370094537735,
            -0.09730277955532074,
            -1.3896762132644653,
            -0.70464026927948,
            -0.908876895904541,
            0.3379725217819214,
            0.14960235357284546,
            1.1975505352020264,
            -0.8566644787788391,
            -0.28267616033554077,
            -0.6788816452026367,
            -0.8986585140228271,
            -2.0245652198791504,
            0.45803818106651306,
            1.379957675933838,
            1.4870704412460327,
            0.06063191592693329,
            0.5944902300834656,
            0.48141005635261536,
            0.558277428150177,
            1.160903811454773,
            0.45959657430648804,
            1.3420751094818115,
            -0.6592833399772644,
            -0.08712956309318542,
            0.1675761491060257,
            -0.16333416104316711,
            0.3511102795600891,
            -0.6636292338371277,
            -0.47835206985473633,
            -1.031646490097046,
            -1.0268142223358154,
            -0.9425452947616577,
            -0.014192206785082817,
            -0.8194212913513184,
            1.668936014175415,
            0.0568181611597538,
            0.6641651391983032,
            -0.09228330850601196,
            0.29479318857192993,
            0.7340298891067505,
            1.3649405241012573,
            0.24381151795387268,
            -0.37601763010025024,
            -0.6851285099983215,
            -1.5034229755401611,
            -0.43884700536727905,
            -0.40112122893333435,
            1.8299500942230225,
            1.1239097118377686,
            -0.4193035960197449,
            -0.46036219596862793,
            1.903580665588379,
            -0.1439625322818756,
            0.41122305393218994,
            0.8342766761779785,
            -2.0060715675354004,
            1.1443655490875244,
            0.0891592800617218,
            -0.2234800010919571,
            0.28089043498039246,
            0.36169660091400146,
            -0.8672655820846558,
            -0.7230172157287598,
            0.1204090416431427,
            -0.5718632936477661,
            -1.4157230854034424,
            -0.3859296441078186,
            -1.6768311262130737,
            -0.09521877765655518,
            0.5336295962333679,
            -1.7806206941604614,
            0.5869395136833191,
            1.190951943397522,
            -0.8306944370269775,
            -1.2230249643325806,
            -0.4149729311466217,
            -1.4843517541885376,
            1.479185700416565,
            0.37196439504623413,
            -0.7134717106819153,
            0.9440696239471436,
            0.4790065884590149,
            -1.289415955543518,
            0.06640425324440002,
            -0.6288050413131714,
            -1.4524497985839844,
            -1.6590547561645508,
            0.5553175210952759,
            -1.075913906097412,
            1.4948492050170898,
            0.3228214979171753,
            -0.6316097974777222,
            -0.74949711561203,
            0.46400177478790283,
            -0.44375985860824585,
            -1.2683337926864624,
            -1.3249828815460205,
            0.22998355329036713,
            -0.28844785690307617,
            -1.3115859031677246,
            0.1551343947649002,
            -1.5743170976638794,
            0.7648546695709229,
            0.261477530002594,
            -1.4356660842895508,
            -0.3017835021018982,
            0.08101899176836014,
            -0.838287353515625,
            1.334277868270874,
            0.42675864696502686,
            -0.1540386974811554,
            -0.2845349609851837,
            -0.8339976668357849,
            1.9646821022033691,
            1.4611084461212158,
            -1.3493022918701172,
            0.14982664585113525,
            0.7393831610679626,
            -0.4242625832557678,
            0.6421983242034912,
            -1.5237088203430176,
            -1.3760696649551392,
            0.6989737749099731,
            0.34709617495536804,
            -1.1903045177459717,
            -0.3129606246948242,
            -0.4033999443054199,
            -0.09168419241905212,
            -0.3128872811794281,
            -0.9278199076652527,
            0.38594090938568115,
            1.6412920951843262,
            1.36543869972229,
            0.9925156235694885,
            1.1392920017242432,
            -0.16757741570472717,
            -1.4913344383239746,
            0.9136489033699036,
            -0.5286028385162354,
            0.3689882755279541,
            0.31345677375793457,
            1.174456000328064,
            1.2127962112426758,
            -0.1582840383052826,
            0.5943716168403625,
            -1.1353163719177246,
            1.6974294185638428,
            -1.072213888168335,
            -1.3672083616256714,
            -0.18432822823524475,
            -0.6068056225776672,
            0.17692998051643372,
            -1.0090854167938232,
            1.5288053750991821,
            0.4879687428474426,
            0.6242417693138123,
            0.3677214980125427,
            -0.19938376545906067,
            -1.2086809873580933,
            -0.9647703766822815,
            -0.45733973383903503,
            0.6914920210838318,
            0.5385368466377258,
            0.06360501796007156,
            -1.3266311883926392,
            -0.8553427457809448,
            -1.717045545578003,
            0.5636803507804871,
            -0.13767457008361816,
            1.1539357900619507,
            -1.5613772869110107,
            1.5456585884094238,
            -0.4535142183303833,
            0.577063262462616,
            -1.1426098346710205,
            -0.5916168689727783,
            0.509569525718689,
            0.13642750680446625,
            1.2153270244598389,
            -0.008213631808757782,
            1.162885308265686,
            1.066592812538147,
            -0.5703754425048828,
            1.4714975357055664,
            0.6450752019882202,
            -0.715212345123291,
            0.6498192548751831,
            0.5084974765777588,
            0.22184503078460693,
            1.3330858945846558,
            1.6627353429794312,
            0.9487802386283875,
            1.739102840423584,
            0.5736342668533325,
            -0.15585637092590332,
            -1.6545056104660034,
            1.823494553565979,
            -0.2845762372016907,
            0.5346360802650452,
            0.8385574221611023,
            1.038543462753296,
            -0.8677512407302856,
            0.8002614974975586,
            -0.21462595462799072,
            -0.35095518827438354,
            0.9053314328193665,
            -1.116818904876709,
            -0.9940377473831177,
            -0.3932987451553345,
            -0.21335341036319733,
            -0.36897048354148865,
            0.6142141819000244,
            0.963561475276947,
            -0.4994215965270996,
            -0.5844257473945618,
            -0.7391171455383301,
            1.5619988441467285,
            -1.1279867887496948,
            -1.459214687347412,
            -1.2374544143676758,
            1.0524768829345703,
            0.47806280851364136,
            0.6596463918685913,
            -0.21841026842594147,
            -0.18465235829353333,
            0.5355408191680908,
            0.6304945945739746,
            0.42633476853370667,
            0.4669800102710724,
            0.993953287601471,
            -0.5164621472358704,
            1.0376790761947632,
            0.563701331615448,
            -1.1569852828979492,
            0.6845080256462097,
            1.4509201049804688,
            -0.8847541809082031,
            1.388171672821045,
            -0.7625042200088501,
            -0.47578495740890503,
            0.15682411193847656,
            -1.084118127822876,
            -1.49729323387146,
            -0.04263855889439583,
            -1.015451431274414,
            0.46810346841812134,
            0.5636036992073059,
            -0.9102635979652405,
            -1.5355408191680908,
            0.5188096165657043,
            -0.026475051417946815,
            0.2467173933982849,
            -1.127819538116455,
            1.0628138780593872,
            0.5307565331459045,
            0.3880879282951355,
            1.5746921300888062,
            1.2191698551177979,
            -0.39317265152931213,
            -1.2691086530685425,
            -1.0989644527435303,
            0.8891263604164124,
            -0.9427397847175598,
            1.520446538925171,
            -1.227425456047058,
            -1.7932453155517578,
            0.46226319670677185,
            1.2271808385849,
            -1.3862130641937256,
            -0.39758893847465515,
            -1.5241934061050415,
            1.9027283191680908,
            -1.2219606637954712,
            -0.3026041090488434,
            -0.48548340797424316,
            -1.1844203472137451,
            1.6009021997451782,
            0.920088529586792,
            0.7143611907958984,
            0.05750282108783722,
            1.2164698839187622,
            0.1709153652191162,
            0.3916238248348236,
            -0.49669715762138367,
            0.9449779391288757,
            0.31156426668167114,
            -2.0442802906036377,
            0.9267311096191406,
            -1.0795445442199707,
            0.7278117537498474,
            -0.2818000912666321,
            0.08569829910993576,
            0.5748668909072876,
            -0.7332145571708679,
            -1.6010208129882812,
            1.1363612413406372,
            -1.7945915460586548,
            0.142099991440773,
            -0.41041702032089233,
            1.5841059684753418,
            0.09764377772808075,
            -1.5550673007965088,
            -0.8755180239677429,
            0.7968478798866272,
            -0.5425064563751221,
            -0.23469394445419312,
            0.6348458528518677,
            0.5427906513214111,
            -0.23352371156215668,
            -0.8933771848678589,
            -1.2125941514968872,
            0.9185936450958252,
            -1.5952707529067993,
            0.07655870169401169,
            -0.45517298579216003,
            1.903633952140808,
            1.523667335510254,
            -1.0685981512069702,
            0.41801881790161133,
            -0.07428386062383652,
            -0.08290243148803711,
            1.5192681550979614,
            -0.5153661370277405,
            -1.2634299993515015,
            0.7875320315361023,
            -0.17177993059158325,
            -2.0052971839904785,
            0.32822978496551514,
            -0.5610638856887817,
            0.11593985557556152,
            -1.3035378456115723,
            1.4190115928649902,
            0.3662243187427521,
            0.6265504360198975,
            -1.0238220691680908,
            -1.9177829027175903,
            0.3802981972694397,
            0.9838570356369019,
            -0.4136629104614258,
            -0.27433398365974426,
            -0.7604742050170898,
            0.8859500288963318,
            1.5884249210357666,
            0.8240779638290405,
            -1.224428653717041,
            -1.5344603061676025,
            0.03454453870654106,
            0.10465092957019806,
            -0.15541435778141022,
            0.8694504499435425,
            0.32767969369888306,
            -1.8314337730407715,
            -0.7631059885025024,
            0.9418541789054871,
            0.42602208256721497,
            -0.4471563994884491,
            -0.7701008915901184,
            -0.14515671133995056,
            -0.5215640664100647,
            -0.2613464593887329,
            -1.6645753383636475,
            -0.6825194358825684,
            0.5272810459136963,
            -1.264945387840271,
            -1.2013517618179321,
            0.768416166305542,
            1.1480011940002441,
            1.195840835571289,
            2.000040054321289,
            1.8119769096374512,
            1.0035781860351562,
            -0.46661677956581116,
            -0.3689679801464081,
            -0.22723393142223358,
            -0.4782743752002716,
            1.2373679876327515
          ],
          "epoch_grid": [
            0,
            10,
            20,
            30,
            40,
            50,
            60,
            70,
            80,
            90,
            100,
            110,
            120,
            130,
            140,
            150,
            160,
            170,
            180,
            190,
            200
          ],
          "estimator_name": "plm_minimax_debias_tracking",
          "factory_name": "make_plm_minimax_tracking_estimator",
          "is_oracle": true,
          "method_config": {
            "L": 3,
            "N": 512,
            "batch_size": 2048,
            "d": 3,
            "device": "cpu",
            "lambda_mu": 2e-05,
            "lambda_pi": 2e-05,
            "lr": 0.001,
            "niter": 200,
            "seed_mode": "trial_seed",
            "tracking_interval": 10,
            "tracking_source": "validation",
            "validation_n": 2048,
            "variance_mode": "constant_one"
          },
          "mu_mse": 0.3351878698266174,
          "mu_mse_path": [
            0.44138413667678833,
            0.40347522497177124,
            0.20065075159072876,
            0.11857658624649048,
            0.11037877947092056,
            0.10569770634174347,
            0.11675705015659332,
            0.12893132865428925,
            0.15962213277816772,
            0.2356187403202057,
            0.562455415725708,
            0.2428281605243683,
            0.2401655912399292,
            0.38082155585289,
            0.3056917190551758,
            0.2815079092979431,
            0.2866861820220947,
            0.39963972568511963,
            0.3631214499473572,
            0.5597109794616699,
            0.31957289576530457
          ],
          "mu_pi_product_mean": 0.3569167860214665,
          "mu_pi_product_mse": 0.3266249774213561,
          "mu_pi_product_true_mean": 0.4057769288476795,
          "nuisance_error_corr": 0.16210591706304772,
          "oracle_residual_corr": 0.02608742250668961,
          "pi_mse": 0.2645031823970497,
          "runtime_sec": 40.80257237501792,
          "tracking_interval": 10,
          "tracking_n": 2048,
          "tracking_split": "validation"
        }
      ],
      "test_seed": 3,
      "train_seed": 2,
      "trial_id": 1,
      "trial_seed": 1,
      "validation_seed": 4
    },
    {
      "beta_true": -0.06400509785799624,
      "dgp_config": {
        "beta_high": 0.5,
        "beta_low": -0.5,
        "beta_sampler_name": "uniform",
        "d": 3,
        "func_mu_name": "experiment_1_7_5_mu",
        "func_pi_name": "experiment_1_7_5_pi_1",
        "n": 2048,
        "n_test": 10000,
        "sigma_eps": 1.7320508075688772,
        "sigma_u": 1.7320508075688772
      },
      "dgp_name": "partial_linear_uniform_noise",
      "estimator_results": [
        {
          "beta_hat": -0.06553595513105392,
          "beta_init_sq_error": 2.343523990473609e-06,
          "beta_initial": -0.06553595513105392,
          "beta_path": [
            0.008006406016647816,
            0.002021440304815769,
            -0.005047336220741272,
            -0.02746696025133133,
            -0.040665943175554276,
            -0.04669148474931717,
            -0.048503730446100235,
            -0.056745193898677826,
            -0.060990624129772186,
            -0.052141085267066956,
            -0.048446498811244965,
            -0.028085166588425636,
            -0.04796566069126129,
            -0.03678227961063385,
            -0.044526904821395874,
            -0.09043851494789124,
            -0.04429634287953377,
            -0.04072660952806473,
            -0.04119034856557846,
            -0.027161037549376488,
            -0.06553595513105392
          ],
          "beta_sq_error": 2.343523990473609e-06,
          "beta_sq_error_path": [
            0.005185656690287876,
            0.0043595037417652705,
            0.0034760176572753735,
            0.0013350354997635806,
            0.0005447161412909527,
            0.0002997611988770238,
            0.00024029239163859145,
            5.270620549852719e-05,
            9.087051858153029e-06,
            0.0001407547947577286,
            0.0002420700042975697,
            0.001290241462410676,
            0.00025726354462563846,
            0.0007410818333289267,
            0.000379400003971067,
            0.0006987255390483528,
            0.0003884350228010693,
            0.0005418880189267576,
            0.0005205127852758776,
            0.0013574847800252095,
            2.343523990473609e-06
          ],
          "debias_weights": [
            0.005419222638010979,
            -1.4533568620681763,
            -0.8585852384567261,
            0.13764487206935883,
            0.12643977999687195,
            -1.091130256652832,
            -0.5474536418914795,
            0.8434682488441467,
            -1.431935429573059,
            -1.6238539218902588,
            1.0271662473678589,
            -0.7263302803039551,
            -1.2906494140625,
            0.8751469850540161,
            -0.863306999206543,
            -0.19929392635822296,
            -0.5800303816795349,
            -0.23353247344493866,
            0.4994323253631592,
            -0.31439825892448425,
            -0.9803271293640137,
            0.5635432004928589,
            -0.3095564544200897,
            -0.5045931935310364,
            -0.4208570718765259,
            -0.3769652545452118,
            -0.8795921802520752,
            -0.6511393189430237,
            -0.6818198561668396,
            0.129163458943367,
            -0.6449350714683533,
            0.04467729851603508,
            -0.036768995225429535,
            0.28635647892951965,
            -0.7518178224563599,
            0.44087839126586914,
            0.2643231153488159,
            -0.2920210659503937,
            -1.061693549156189,
            -0.0905444398522377,
            -0.16496765613555908,
            -1.8811808824539185,
            -0.013124428689479828,
            -0.8277663588523865,
            1.276902437210083,
            -0.9197378158569336,
            -1.2689251899719238,
            0.4180932343006134,
            0.8341572284698486,
            0.02406073361635208,
            1.169784426689148,
            1.2975566387176514,
            -0.7346885800361633,
            -0.6232661604881287,
            -0.19773656129837036,
            0.4834650456905365,
            0.09298410266637802,
            1.071324110031128,
            -2.0865061283111572,
            0.5577564835548401,
            -1.7960141897201538,
            0.8957820534706116,
            -0.7668992877006531,
            -0.8301892280578613,
            -0.5916212797164917,
            -0.2966756820678711,
            0.9240890145301819,
            1.257358193397522,
            -0.9424571990966797,
            -1.2395155429840088,
            -1.7324931621551514,
            -0.24736694991588593,
            0.3836047351360321,
            -1.3680920600891113,
            -0.4994174838066101,
            -0.7796984910964966,
            -0.8367223143577576,
            0.5803688168525696,
            -0.4741204082965851,
            0.4625400900840759,
            -0.8638788461685181,
            -0.5743615627288818,
            -0.744794487953186,
            -0.7775839567184448,
            0.15152370929718018,
            -1.0236896276474,
            0.40679875016212463,
            -0.40536630153656006,
            -0.3952711820602417,
            1.2194607257843018,
            -0.9161348342895508,
            0.5047115683555603,
            -0.6742246150970459,
            0.6624040007591248,
            -0.03408076986670494,
            -0.8909088969230652,
            0.1588187962770462,
            0.13127507269382477,
            1.0609198808670044,
            -0.19297748804092407,
            -0.8175864815711975,
            0.6628656983375549,
            0.558454155921936,
            0.6403264403343201,
            -1.0682073831558228,
            0.8727890253067017,
            0.1536366194486618,
            0.9171295762062073,
            -0.050953369587659836,
            0.8885128498077393,
            -0.5662230253219604,
            -0.20864851772785187,
            -0.10989554971456528,
            -1.2582929134368896,
            -0.4935712218284607,
            2.042201042175293,
            0.32064005732536316,
            -1.0827053785324097,
            -0.7230799198150635,
            -2.220928430557251,
            -0.24699729681015015,
            0.5575870275497437,
            -0.9762284755706787,
            -0.20178821682929993,
            0.7744130492210388,
            -0.6691832542419434,
            -0.10845965892076492,
            1.1983088254928589,
            0.7349902987480164,
            1.7482240200042725,
            0.9174439907073975,
            0.27513396739959717,
            -1.1345679759979248,
            -0.1775575578212738,
            0.322703093290329,
            0.11953046917915344,
            0.9709148406982422,
            -1.7509338855743408,
            -0.7362795472145081,
            0.6438208222389221,
            -0.40473905205726624,
            -1.1229362487792969,
            -0.8473893404006958,
            0.11210586130619049,
            0.8581989407539368,
            -0.6239985227584839,
            0.6335157752037048,
            0.11498718708753586,
            1.6036182641983032,
            0.15574593842029572,
            0.4068242907524109,
            -1.4922409057617188,
            -0.5721554756164551,
            -0.9528393745422363,
            -0.3451729416847229,
            1.1087646484375,
            0.6405264735221863,
            0.8247925043106079,
            1.5157482624053955,
            -0.15621048212051392,
            -0.28909531235694885,
            0.011877188459038734,
            1.5716137886047363,
            -0.5327448844909668,
            0.7032653093338013,
            -1.01697838306427,
            0.08010432869195938,
            -0.595727801322937,
            1.1358954906463623,
            1.652098298072815,
            -0.14842434227466583,
            -0.20389901101589203,
            -0.2719117999076843,
            0.15651322901248932,
            1.10141921043396,
            -1.1098783016204834,
            -0.5647700428962708,
            -1.1783876419067383,
            -0.13744215667247772,
            0.11063095927238464,
            0.8943264484405518,
            1.8155139684677124,
            -0.9275006055831909,
            -1.4148927927017212,
            -0.5001739859580994,
            1.4135605096817017,
            -0.48400771617889404,
            -0.9221642017364502,
            -1.0709346532821655,
            1.436828851699829,
            1.3383307456970215,
            -0.008708300068974495,
            -0.3129315972328186,
            0.8141674995422363,
            -0.039872486144304276,
            1.3803369998931885,
            -0.12469824403524399,
            -0.7489227652549744,
            -0.1683621108531952,
            -1.0834225416183472,
            -1.357379674911499,
            0.05340925604104996,
            -0.7038452625274658,
            -0.36106234788894653,
            1.5396478176116943,
            1.454627513885498,
            -0.29175329208374023,
            0.6023271083831787,
            -0.13676272332668304,
            -0.9111878275871277,
            -0.3713487982749939,
            0.04062328487634659,
            -0.9203255772590637,
            -1.0415849685668945,
            -1.5483553409576416,
            0.6872135996818542,
            -0.24449726939201355,
            0.18210671842098236,
            1.0384176969528198,
            1.083748459815979,
            1.0457152128219604,
            1.6218758821487427,
            0.49214643239974976,
            -0.8626163601875305,
            -1.2146984338760376,
            -0.9091989994049072,
            1.0463712215423584,
            -1.4881395101547241,
            -0.31160256266593933,
            -1.00675368309021,
            -1.2621023654937744,
            -0.6768656373023987,
            1.0001673698425293,
            0.7897326350212097,
            0.20423394441604614,
            -0.4162411093711853,
            0.812337338924408,
            -0.7547520995140076,
            0.37100282311439514,
            0.09986695647239685,
            0.3903125524520874,
            -1.6276309490203857,
            0.25347429513931274,
            1.1213808059692383,
            0.4194575250148773,
            -1.5376157760620117,
            0.7666248083114624,
            -0.2861096262931824,
            0.6843113303184509,
            -0.14723588526248932,
            -0.633887529373169,
            -1.8339083194732666,
            0.822181224822998,
            0.6877973079681396,
            2.2518081665039062,
            -0.6798523664474487,
            -0.9803733825683594,
            -1.7556101083755493,
            -0.32361745834350586,
            -1.0103809833526611,
            -1.3394238948822021,
            1.5519566535949707,
            -0.6076167225837708,
            -0.11751911044120789,
            -0.45372262597084045,
            0.682069718837738,
            -1.1632717847824097,
            0.3872249126434326,
            -0.35156551003456116,
            -0.9312491416931152,
            -1.8637300729751587,
            0.005783350206911564,
            -0.513885498046875,
            -1.305002212524414,
            -0.7554163932800293,
            -0.6149008274078369,
            -0.4547348916530609,
            0.8819714784622192,
            0.6695432066917419,
            -0.9953770637512207,
            0.6263167262077332,
            -0.4885047972202301,
            0.8730067014694214,
            -0.7538527846336365,
            0.3465765118598938,
            1.5735219717025757,
            0.38177937269210815,
            0.12388895452022552,
            1.3170239925384521,
            0.7872470617294312,
            -0.5806511044502258,
            -0.11574503779411316,
            1.324554204940796,
            -0.24443136155605316,
            0.06545878201723099,
            0.9861764907836914,
            -1.6483956575393677,
            -0.38924938440322876,
            -1.3703073263168335,
            0.10707740485668182,
            -0.07450052350759506,
            -0.4539492726325989,
            0.8343423008918762,
            1.3204185962677002,
            0.18162234127521515,
            1.289555549621582,
            -0.2937666177749634,
            0.33599400520324707,
            0.5613639950752258,
            1.284546971321106,
            0.4703933298587799,
            1.7220194339752197,
            -1.5245695114135742,
            -1.0609294176101685,
            0.5408685207366943,
            -0.334246426820755,
            1.366776466369629,
            -0.24052467942237854,
            -0.9046449661254883,
            -0.28666916489601135,
            -0.6134368181228638,
            -0.4046824276447296,
            0.5915849804878235,
            0.4083687365055084,
            -0.04422508180141449,
            -0.9834092259407043,
            0.7719305157661438,
            -0.06084073707461357,
            -1.0236393213272095,
            -1.1261820793151855,
            0.03608057647943497,
            0.13824912905693054,
            0.8902407884597778,
            -0.7029606103897095,
            0.03212752193212509,
            -1.3841822147369385,
            -0.20561164617538452,
            1.8509066104888916,
            -0.2003379762172699,
            -1.6093058586120605,
            -0.799152135848999,
            1.9486130475997925,
            -0.6348999738693237,
            1.0249537229537964,
            0.5316742062568665,
            1.58272385597229,
            1.0253466367721558,
            -1.2773749828338623,
            -0.6986863017082214,
            -0.7336617708206177,
            -0.4225711226463318,
            -0.24793238937854767,
            -1.627209186553955,
            -0.8497276902198792,
            -1.1489059925079346,
            -0.5172591209411621,
            -0.7216382622718811,
            0.04218780994415283,
            -0.7047960162162781,
            -0.52461838722229,
            0.9839234352111816,
            0.47995689511299133,
            0.7212891578674316,
            1.1511670351028442,
            1.671905755996704,
            0.9256072044372559,
            -1.1047676801681519,
            1.4322172403335571,
            0.18473775684833527,
            -0.4809034466743469,
            -0.48753267526626587,
            -0.6113262176513672,
            1.5763967037200928,
            -0.3694230616092682,
            -0.6545983552932739,
            -0.39188164472579956,
            0.3496270179748535,
            -0.4319075345993042,
            -1.0291749238967896,
            0.2065333127975464,
            -0.41913992166519165,
            -1.0944418907165527,
            0.16317903995513916,
            0.9283972382545471,
            -0.007282602600753307,
            -0.1053483858704567,
            -1.1800379753112793,
            0.3293476998806,
            2.3113253116607666,
            -0.6976732015609741,
            0.7227061986923218,
            -1.4937907457351685,
            -1.5638415813446045,
            -0.6388770341873169,
            -1.1655552387237549,
            -0.00013027391105424613,
            -0.34916189312934875,
            0.7526540160179138,
            -1.4660558700561523,
            -1.3203372955322266,
            0.5621882677078247,
            -1.047973871231079,
            -1.52437162399292,
            1.2611558437347412,
            -0.07681864500045776,
            -0.6101783514022827,
            -0.3082910478115082,
            -0.6366877555847168,
            0.7111893892288208,
            -0.6108672618865967,
            -1.0608937740325928,
            -1.5383727550506592,
            -0.08877544105052948,
            1.7852411270141602,
            0.33958858251571655,
            0.5737270712852478,
            -1.5686943531036377,
            0.5602545738220215,
            0.9902620911598206,
            0.19625252485275269,
            0.001527434797026217,
            0.021688491106033325,
            -1.0875494480133057,
            -1.3079495429992676,
            -1.4719884395599365,
            -0.49787724018096924,
            -0.6919633746147156,
            -0.36335933208465576,
            0.6340979933738708,
            0.6946984529495239,
            -0.168246790766716,
            -0.5426450371742249,
            -1.0211443901062012,
            -1.288295865058899,
            0.014828034676611423,
            0.5430123805999756,
            2.2342021465301514,
            1.2899188995361328,
            0.2893728017807007,
            -1.27208411693573,
            -0.4943138062953949,
            1.385258674621582,
            -0.8566611409187317,
            -1.3279173374176025,
            -0.5402126312255859,
            -0.7964487075805664,
            -0.060618218034505844,
            0.9285793304443359,
            0.3064728379249573,
            1.1983057260513306,
            1.8230609893798828,
            -1.827015995979309,
            0.6551990509033203,
            0.25149697065353394,
            -1.1858152151107788,
            -0.0051107872277498245,
            0.26847922801971436,
            0.22181831300258636,
            0.5582019090652466,
            0.9172626733779907,
            -0.4000534117221832,
            -0.3723752200603485,
            -0.45621997117996216,
            -0.9413948059082031,
            0.428459495306015,
            -0.950104296207428,
            -0.21673056483268738,
            0.781035304069519,
            -1.2192505598068237,
            -1.2127224206924438,
            0.3189871907234192,
            0.7923794984817505,
            0.9648723006248474,
            -1.1019291877746582,
            -0.053365811705589294,
            1.9186197519302368,
            0.2402234822511673,
            0.33665400743484497,
            -0.5523136258125305,
            0.6610225439071655,
            -1.3427625894546509,
            1.4257349967956543,
            -0.008159381337463856,
            0.9700949192047119,
            1.215941309928894,
            1.3210103511810303,
            -0.7997015118598938,
            1.2979494333267212,
            1.5840870141983032,
            -0.1349705457687378,
            1.088453769683838,
            -0.9928075075149536,
            1.95479154586792,
            -1.4338011741638184,
            0.45882564783096313,
            0.545877993106842,
            1.157724142074585,
            0.26039931178092957,
            -1.1761187314987183,
            -0.18824799358844757,
            0.7683485746383667,
            -1.0803358554840088,
            0.1791801154613495,
            -0.2944883406162262,
            1.112979769706726,
            0.1553172767162323,
            -0.762111485004425,
            -0.47058314085006714,
            1.2264769077301025,
            1.6267585754394531,
            -1.7696342468261719,
            -1.264561414718628,
            -1.0809601545333862,
            0.720045268535614,
            1.1350558996200562,
            0.12795589864253998,
            0.782375693321228,
            -0.871849775314331,
            1.5167317390441895,
            -0.3036673069000244,
            -1.5064657926559448,
            -0.10934609174728394,
            -1.189956784248352,
            0.15194854140281677,
            0.6931864023208618,
            -0.7831775546073914,
            -0.4614388346672058,
            -0.4819190204143524,
            -0.15342669188976288,
            0.5589422583580017,
            1.1101469993591309,
            0.7317991256713867,
            0.011477409861981869,
            -0.45982804894447327,
            -0.5739154815673828,
            0.6561210751533508,
            -0.9583873152732849,
            -0.6142968535423279,
            -0.10792713612318039,
            1.766466498374939,
            -0.6311171054840088,
            0.7158209085464478,
            0.6165430545806885,
            -0.589775800704956,
            -0.3202608823776245,
            0.8183081150054932,
            -1.6317070722579956,
            0.6302555799484253,
            0.665980875492096,
            0.8106350302696228,
            0.22133225202560425,
            -1.3596271276474,
            0.9962362051010132,
            -0.6139447093009949,
            0.6795579195022583,
            -0.8843014240264893,
            -1.1202411651611328,
            0.10193578898906708,
            -1.6265277862548828,
            -0.9763557314872742,
            0.2221779227256775,
            -0.04058218002319336,
            1.2895596027374268,
            0.5562071204185486,
            -0.8624517917633057,
            0.30807143449783325,
            -0.4649983048439026,
            -1.2835402488708496,
            0.697663426399231,
            -0.24400459229946136,
            0.5013235211372375,
            -0.3288608491420746,
            -1.263803482055664,
            -1.0848826169967651,
            0.5290706157684326,
            1.449266791343689,
            0.41615140438079834,
            0.6589113473892212,
            0.9829741716384888,
            1.0621683597564697,
            -0.28585559129714966,
            1.2509642839431763,
            0.7417715191841125,
            -0.7782619595527649,
            -0.01650196872651577,
            0.29494327306747437,
            0.3311677575111389,
            -1.0664114952087402,
            0.3764823377132416,
            -1.2742056846618652,
            1.5078657865524292,
            -0.3095182478427887,
            -1.0602240562438965,
            -0.28273841738700867,
            0.5968135595321655,
            -0.8857596516609192,
            0.36186665296554565,
            -0.013664369471371174,
            0.08917748928070068,
            -1.6351567506790161,
            0.18599539995193481,
            0.5196501016616821,
            1.000619649887085,
            0.8397679328918457,
            -1.513748288154602,
            -0.24073205888271332,
            -0.5416756272315979,
            0.941949188709259,
            -0.9606286287307739,
            0.8258373737335205,
            -0.7065834999084473,
            -0.8861336708068848,
            -0.21163643896579742,
            -1.2771825790405273,
            -1.8169515132904053,
            -1.0162379741668701,
            -0.29170510172843933,
            -0.9727722406387329,
            -0.6880552768707275,
            0.4359036982059479,
            -1.4092464447021484,
            1.6634294986724854,
            -0.8927863836288452,
            0.18703237175941467,
            0.59153151512146,
